export default class SVM_COVID_19_Model_Parameters {
  static str_Model_Severe_Vs_Mild =
  `
  svm_type c_svc
  kernel_type rbf
  gamma 0.00048828125
  nr_class 2
  total_sv 33
  rho -449.25900722761054
  label 1 -1
  probA -0.92671988174979092
  probB 0.1340102983762006
  nr_sv 16 17
  SV
  6514.9838510498057 1:1 2:-0.243112 3:0.283582 4:0.996552 5:-1 6:-0.844262 7:-0.279822 8:-0.518259 9:1 10:1 11:-0.35 12:-0.770137 
  34735.306403108298 1:0.420668 2:0.256696 3:-1 4:0.999687 5:-0.936561 6:-0.696721 7:-0.57971 8:-0.695506 9:-0.941296 10:-0.947944 11:-0.289474 12:-0.89899 
  748528.08567594143 1:-0.550104 2:0.846213 3:0.119403 4:0.780285 5:-0.823038 6:-0.811475 7:0.0144928 8:-0.20436 9:-0.923233 10:-0.937131 11:-0.357895 12:-0.90404 
  1835008 1:-0.604384 2:0.487377 3:-0.766169 4:-0.106096 5:0.0951586 6:0.508197 7:-0.724638 8:-0.976821 9:-0.885753 10:-0.984911 11:-0.560526 12:-0.965657 
  1835008 1:-0.874739 2:0.307958 3:-0.527363 4:0.283184 5:-0.509182 6:-0.737705 7:-0.666667 8:-0.975605 9:-0.911492 10:-0.980133 11:-0.734211 12:-0.973737 
  756711.20795047842 1:-0.754697 2:0.577086 3:0.129353 4:-0.118633 5:-0.0116861 6:-0.0245902 7:-0.144928 8:-0.975605 9:-0.932265 10:-1 11:-0.744737 12:-0.986869 
  1835008 1:-0.590814 2:0.538639 3:-0.691542 4:0.0493653 5:-0.175292 6:0.139344 7:-0.869565 8:-0.975605 9:-0.921427 10:-0.948699 11:-0.792105 12:-1 
  932895.74340444617 1:-0.813152 2:0.410483 3:-0.542289 4:-0.664629 5:0.415693 6:0.122951 7:-0.594203 8:-0.975605 9:-0.848724 10:-0.910223 11:-0.705263 12:-1 
  1065475.3320603902 1:-0.689979 2:0.359221 3:-0.039801 4:0.0647234 5:-0.225376 6:-0.139344 7:-0.927536 8:-0.975605 9:-0.921427 10:-0.978121 11:-0.639474 12:-0.770137 
  592752.44108617108 1:-0.593946 2:0.397668 3:-0.437811 4:0.664316 5:-0.692821 6:-0.647541 7:-0.362319 8:-0.383474 9:-0.911944 10:-0.96253 11:-0.521053 12:-0.928283 
  1835008 1:-0.675365 2:0.577086 3:-0.517413 4:-0.200752 5:-0.048414 6:0.0983607 7:-0.279822 8:-0.903797 9:-0.929555 10:-0.912737 11:-0.852632 12:-0.958586 
  1052915.3054154867 1:-0.911273 2:0.282327 3:-0.646766 4:0.432377 5:-0.385643 6:-0.696721 7:0.0869565 8:-0.326742 9:-0.88485 10:-0.89111 11:-0.523684 12:-0.976768 
  139897.58626567182 1:-0.386221 2:0.33359 3:0.238806 4:0.370632 5:-0.36227 6:0.196721 7:-0.478261 8:-0.975605 9:-0.880786 10:-0.904942 11:-0.860526 12:-0.770137 
  1133564.1194997528 1:-0.491649 2:0.628348 3:0.651741 4:-0.0738129 5:-0.145242 6:0.401639 7:-0.279822 8:-0.975605 9:-0.917814 10:-0.890859 11:-0.723684 12:-0.90202 
  1835008 1:-0.813152 2:0.589901 3:-0.348259 4:-0.477198 5:0.115192 6:-0.0409836 7:-0.956522 8:-0.997488 9:-0.932265 10:-0.947693 11:-0.686842 12:-0.944444 
  1835008 1:-0.796451 2:0.589901 3:-0.228856 4:0.240558 5:-0.422371 6:-0.54918 7:-0.971014 8:-0.886777 9:-0.886656 10:-0.960015 11:-1 12:-0.941414 
  -1605632 1:-0.448852 2:0.666795 3:-0.378109 4:-0.0189625 5:-0.048414 6:0.672131 7:-0.536232 8:-0.935243 9:-0.883044 10:-0.934867 11:-0.763158 12:-0.983838 
  -122293.55441683906 1:-0.80167 2:0.67961 3:-0.845771 4:0.253722 5:-0.539232 6:-0.639344 7:-0.666667 8:-0.947806 9:-0.838338 10:-0.851125 11:-0.828947 12:-0.965657 
  -1605632 1:-0.660752 2:0.372036 3:-0.119403 4:0.0123805 5:-0.168614 6:-2.22045e-16 7:-0.318841 8:-0.762775 9:-0.993678 10:-0.949956 11:-0.915789 12:-0.843434 
  -1495294.2668085215 1:-0.45929 2:0.166987 3:-0.39801 4:0.636107 5:-0.649416 6:-0.45082 7:-0.594203 8:-0.903797 9:-0.979228 10:-0.982397 11:-0.802632 12:-0.987879 
  -1605632 1:-0.646138 2:0.474561 3:-0.567164 4:-0.373139 5:0.208681 6:0.54918 7:-0.623188 8:-0.89083 9:-0.913299 10:-0.954986 11:-0.805263 12:-0.992929 
  -116492.21941135339 1:-0.818372 2:0.871844 3:-0.850746 4:0.360288 5:-0.278798 6:-0.442623 7:-0.84058 8:-0.417514 9:-0.702416 10:-0.795297 11:0.405263 12:-0.949495 
  -398630.95131411665 1:-0.605428 2:0.359221 3:-0.313433 4:-0.178812 5:0.118531 6:0.540984 7:-0.971014 8:-0.975605 9:-0.902009 10:-0.956746 11:-0.897368 12:-0.99798 
  -1001037.6983585688 1:-0.805846 2:0.205434 3:-0.547264 4:-0.0189625 5:-0.00834725 6:-0.147541 7:-0.913043 8:-0.945617 9:-0.901106 10:-0.951213 11:-0.826316 12:-0.99798 
  -884191.01108788978 1:-0.758873 2:0.705242 3:-0.308458 4:-0.0158282 5:-0.0417362 6:-0.0655738 7:-0.449275 8:-0.585444 9:-0.920524 10:-0.97108 11:-0.815789 12:-0.99798 
  -736180.31998886494 1:-0.546973 2:0.551455 3:-0.890547 4:-0.373139 5:0.285476 6:1 7:-0.898551 8:-0.975605 9:-0.938587 10:-0.951465 11:-0.784211 12:-0.979215 
  -1605632 1:-0.938413 2:0.718057 3:-0.527363 4:0.131484 5:-0.195326 6:-0.606557 7:-0.289855 8:-0.762775 9:-0.857756 10:-0.948196 11:-0.0368421 12:-0.809091 
  -225591.61105311141 1:-0.729645 2:0.88466 3:-0.696517 4:-0.0314998 5:-0.0383973 6:0.00819672 7:-0.637681 8:-0.922357 9:-0.772409 10:-0.84685 11:-0.731579 12:-0.99798 
  -1605632 1:-0.764092 2:0.500192 3:0.0547264 4:0.169096 5:-0.412354 6:-0.47541 7:-0.536232 8:-0.966933 9:-0.881237 10:-0.934364 11:-0.447368 12:-0.858586 
  -1605632 1:-0.881002 2:0.436114 3:-0.487562 4:-0.263438 5:-0.248748 6:-0.532787 7:-0.884058 8:-0.975605 9:-0.902009 10:-0.94216 11:-0.897368 12:-0.975758 
  -1121578.9576622217 1:-0.829854 2:0.615532 3:0.0845771 4:-0.335527 5:-0.0851419 6:-0.278689 7:-0.913043 8:-0.975605 9:-0.895688 10:-0.9404 11:-0.931579 12:-0.99798 
  -1266898.4524230901 1:-0.860125 2:0.628348 3:-0.368159 4:0.607898 5:-0.69616 6:-0.885246 7:-0.173913 8:-0.648499 9:-0.926846 10:-0.93537 11:-0.744737 12:-0.985859 
  -472057.06908790208 1:-0.456159 2:0.474561 3:-0.0746269 4:-0.134932 5:-0.0951586 6:-0.57377 7:-0.927536 8:-0.975605 9:-0.831113 10:-0.932856 11:-0.797368 12:-0.99798 
  
  `

  static feature_min_Model_Severe_Vs_Mild = [-1, -1, -1, -1, -1, -1, -1, -1, -1, -1, -1, -1]
  static feature_max_Model_Severe_Vs_Mild = [1, 1, 1, 1, 1, 1, 1, 1, 1, 1, 1, 1]
}
