export default class SVM_COVID_19_Model_Parameters {
  static str_Model_Mild_Vs_Viral =
  `
  svm_type c_svc
  kernel_type rbf
  gamma 0.0009765625
  nr_class 2
  total_sv 144
  rho 8.1774972129655268
  label 1 -1
  probA -0.67685709051754073
  probB -0.71370817031882894
  nr_sv 101 43
  SV
  5504 1:-0.323944 2:0.529412 3:-0.447115 4:-0.040613 5:-0.52 6:-0.0846287 7:0.0147783 8:-0.957698 9:-0.771909 10:-0.576943 11:-0.846918 12:-0.548799 13:-0.973869 14:-0.791045 15:-1 
  5504 1:-0.791293 2:0.254902 3:-0.504808 4:0.701149 5:-0.686452 6:-0.692573 7:-0.871921 8:-0.905239 9:-0.889556 10:-0.611846 11:-0.887078 12:-0.661159 13:-0.98794 14:-0.791045 15:-1 
  5504 1:-1 2:0.477124 3:-0.735577 4:-0.374713 5:-0.967742 6:0.0880829 7:-0.724138 8:-0.957698 9:-0.879952 10:-0.756742 11:-0.909742 12:-0.610487 13:-0.958794 14:-0.373134 15:-1 
  5504 1:-0.610755 2:0.424837 3:-0.418269 4:0.413027 5:-0.594839 6:-0.564767 7:-0.684729 8:-0.957698 9:-0.839136 10:-0.62771 11:-0.889066 12:-0.511346 13:-0.846231 14:-0.701493 15:-1 
  5504 1:-0.756722 2:0.542484 3:-0.899038 4:0.226054 5:-0.738065 6:-0.592401 7:-0.773399 8:-0.90997 9:-0.733493 10:-0.472237 11:-0.714513 12:-0.603878 13:-0.955779 14:0.283582 15:1 
  5504 1:-0.226633 2:0.686275 3:-0.100962 4:-0.040613 5:-0.459355 6:-0.160622 7:0.0394089 8:-0.957698 9:-0.647059 10:-0.668958 11:-0.83499 12:-0.608284 13:-0.98794 14:-0.731343 15:1 
  5504 1:-0.62356 2:-0.0196078 3:-0.697115 4:0.293487 5:-0.630968 6:-0.419689 7:-0.586207 8:-0.957698 9:-0.839136 10:-0.763088 11:-0.93002 12:-0.581846 13:-0.977889 14:-0.492537 15:-1 
  4891.8399065654612 1:-0.81178 2:0.51634 3:-0.716346 4:-0.586207 5:-0.905806 6:0.478411 7:-0.261084 8:-0.957698 9:-0.781513 10:-0.668958 11:-0.893837 12:-0.663362 13:-0.982915 14:-0.731343 15:-1 
  479.34201496119704 1:-0.0179257 2:0.529412 3:-0.326923 4:0.462069 5:-0.834839 6:-0.554404 7:-0.29064 8:-0.908996 9:-0.493397 10:-0.776838 11:-0.899404 12:-0.703018 13:-0.896471 14:-0.641791 15:-1 
  5504 1:-0.640205 2:0.202614 3:-0.442308 4:-0.331801 5:-0.775484 6:0.229706 7:-0.133005 8:-0.957698 9:-0.735894 10:-0.576943 11:-0.864414 12:-0.6898 13:-0.896471 14:-0.791045 15:-1 
  5504 1:-0.596671 2:0.738562 3:0.115385 4:-0.255172 5:-0.735484 6:0.105354 7:-0.162562 8:-0.957698 9:-0.867947 10:-0.632998 11:-0.810736 12:-0.381362 13:-0.98794 14:-0.731343 15:1 
  5504 1:-0.6863 2:0.764706 3:-0.399038 4:0.0390805 5:-0.725161 6:-0.164076 7:-0.477833 8:-0.957698 9:-0.757503 10:-0.516658 11:-0.771769 12:-0.592862 13:-0.98794 14:-0.731343 15:1 
  5504 1:-0.786172 2:0.424837 3:-0.572115 4:-0.402299 5:-0.863226 6:0.329879 7:-0.300493 8:-0.957698 9:-0.85114 10:-0.618191 11:-0.897018 12:-0.614893 13:-0.98794 14:-0.492537 15:-1 
  5504 1:-0.370038 2:-1 3:-0.427885 4:0.0789272 5:-0.510968 6:-0.164076 7:-0.123153 8:-0.957698 9:-0.695078 10:-0.804336 11:-0.899006 12:-0.6898 13:-0.896471 14:-0.910448 15:-1 
  2962.7006371522994 1:-0.761844 2:0.0588235 3:-0.610577 4:-0.040613 5:-0.789677 6:-0.0431779 7:-0.477833 8:-0.906213 9:-0.867947 10:-0.619249 11:-0.872763 12:-0.601674 13:-0.98794 14:-0.552239 15:-1 
  4546.1218987959865 1:-0.527529 2:0.228758 3:-0.0913462 4:-0.230651 5:-0.691613 6:0.188256 7:0.00492611 8:-0.947262 9:-0.255702 10:-0.789529 11:-0.870378 12:-0.654549 13:-0.896471 14:-0.731343 15:-1 
  5504 1:-0.501921 2:0.359477 3:0.5625 4:-0.101916 5:-0.645161 6:-0.0362694 7:-0.152709 8:-0.957698 9:-0.843938 10:-0.6055 11:-0.872366 12:-0.502534 13:-0.98794 14:-0.820896 15:-1 
  5504 1:-0.444302 2:0.411765 3:-0.942308 4:-0.386973 5:-0.686452 6:0.260794 7:0.211823 8:-0.957698 9:-0.743097 10:-0.707033 11:-0.873161 12:-0.566424 13:-0.896471 14:-0.58209 15:-1 
  5504 1:0.198464 2:0.411765 3:-0.211538 4:0.685824 5:-0.750968 6:-0.758204 7:-0.487685 8:-0.972448 9:-0.843938 10:-0.64569 11:-0.92167 12:-0.698612 13:-0.885427 14:-0.791045 15:-1 
  5504 1:-0.644046 2:0.45098 3:-0.0528846 4:-0.298084 5:-0.776774 6:0.105354 7:-0.231527 8:-0.957698 9:-0.709484 10:-0.519831 11:-0.720875 12:-0.584049 13:-0.98794 14:-0.492537 15:1 
  5504 1:-0.649168 2:0.633987 3:-0.802885 4:-0.32567 5:-0.779355 6:-0.015544 7:-0.320197 8:-0.941 9:-0.901561 10:-0.696457 11:-0.794433 12:-0.573034 13:-0.98794 14:-0.432836 15:1 
  5504 1:-0.710627 2:0.359477 3:-0.0288462 4:0.143295 5:-0.725161 6:-0.46114 7:-0.674877 8:-0.942809 9:-0.891957 10:-0.572713 11:-0.846123 12:-0.284424 13:-0.849246 14:-0.134328 15:-1 
  5504 1:-0.815621 2:0.529412 3:-0.432692 4:-0.672031 5:-0.92 6:0.336788 7:-0.344828 8:-0.957698 9:-0.87515 10:-0.765204 11:-0.817097 12:-0.581846 13:-0.98794 14:-0.223881 15:-1 
  5504 1:-0.854033 2:0.294118 3:-0.552885 4:-0.279693 5:-0.88 6:-0.291883 7:-0.70936 8:-0.957698 9:-0.752701 10:-0.621364 11:-0.858449 12:-0.661159 13:-0.965829 14:-0.313433 15:-1 
  5504 1:-0.791293 2:0.477124 4:-0.350192 5:-0.858065 6:-0.122625 7:-0.55665 8:-0.957698 9:-0.716687 10:-0.606557 11:-0.855666 12:-0.6898 13:-0.98794 14:-0.791045 15:-1 
  5504 1:-0.65557 2:0.464052 3:-0.490385 4:0.189272 5:-0.673548 6:-0.450777 7:-0.625616 8:-0.957698 9:-0.589436 10:-0.649921 11:-0.840954 12:-0.672174 13:-0.98794 14:-0.880597 15:-1 
  5504 1:-0.651729 2:0.372549 3:-0.206731 4:0.0237548 5:-0.712258 6:-0.274611 7:-0.527094 8:-0.957698 9:-0.858343 10:-0.512427 11:-0.8167 12:-0.610487 13:-0.98995 14:-0.641791 15:-1 
  1598.1003095743297 1:-0.560819 2:0.869281 3:-0.557692 4:-0.331801 5:-0.734194 6:0.181347 7:-0.0492611 8:-0.862937 9:-0.848739 10:-0.694342 11:-0.823062 12:-0.692003 13:-0.896471 14:-0.462687 15:1 
  5504 1:-0.705506 2:0.633987 3:-0.576923 4:-0.08659 5:-0.763871 6:-0.402418 7:-0.640394 8:-0.907048 9:-0.834334 10:-0.528292 11:-0.8 12:-0.658956 13:-0.98794 14:-0.522388 15:1 
  5504 1:-0.332907 2:0.333333 3:-0.153846 4:-0.154023 5:-0.557419 6:-0.132988 7:-0.0344828 8:-0.957698 9:-0.678271 10:-0.689053 11:-0.949105 12:-0.57744 13:-0.896471 14:-0.641791 15:-1 
  5504 1:-0.664533 2:0.738562 3:-0.456731 4:-0.190805 5:-0.76 6:0.132988 7:-0.236453 8:-0.957698 9:-0.752701 10:-0.693284 11:-0.71173 12:-0.614893 13:-0.896471 14:-0.761194 15:1 
  480.92184833294999 1:-0.924456 2:0.333333 3:-0.216346 4:-0.537165 5:-0.948387 6:0.364421 7:-0.512315 8:-0.955333 9:-0.877551 10:-0.777895 11:-0.874751 12:-0.544393 13:-0.98794 14:-0.0746269 15:-1 
  5504 1:-0.804097 2:0.594771 3:-0.399038 4:-0.408429 5:-0.873548 6:0.264249 7:-0.364532 8:-0.957698 9:-0.810324 10:-0.53358 11:-0.78171 12:-0.551002 13:-0.98794 14:-0.164179 15:1 
  5504 1:-0.605634 2:0.764706 3:-0.163462 4:-0.123065 5:-0.725161 6:-0.074266 7:-0.310345 8:-0.990955 9:-0.548619 10:-0.654151 11:-0.807952 12:-0.709628 13:-0.98995 14:-0.58209 15:1 
  5504 1:-0.695262 2:0.594771 3:-0.783654 4:-0.252107 5:-0.44129 6:-0.177893 7:-0.456885 8:-0.874765 9:-0.839136 10:-0.736647 11:-0.751491 12:-0.584049 13:-0.984925 14:0.462687 15:1 
  5504 1:-0.941101 2:0.320261 3:-0.206731 4:-0.144828 5:-0.905806 6:-0.126079 7:-0.724138 8:-0.949767 9:-0.906363 10:-0.539926 11:-0.817893 12:-0.568627 13:-0.896471 14:0.462687 15:-1 
  5504 1:-0.571063 2:0.816993 3:-0.235577 4:0.0574713 5:-0.649032 6:-0.219344 7:-0.384236 8:-0.957698 9:-0.486194 10:-0.60853 11:-0.813519 12:-0.570831 13:-0.974874 14:-0.104478 15:1 
  5504 1:-0.815621 2:0.424837 3:-0.163462 4:-0.681226 5:-0.92129 6:0.374784 7:-0.325123 8:-0.957698 9:-0.927971 10:-0.527234 11:-0.875547 12:-0.654549 13:-0.986935 14:-0.731343 15:-1 
  5504 1:-0.618438 2:0.267974 3:-0.350962 4:0.0298851 5:-0.686452 6:-0.226252 7:-0.428571 8:-0.957698 9:-0.935174 10:-0.484929 11:-0.858847 12:-0.632518 13:-0.98794 14:-0.641791 15:-1 
  5504 1:-0.665813 2:0.372549 3:-0.365385 4:-0.31954 5:-0.789677 6:0.105354 7:-0.280788 8:-0.957698 9:-0.771909 10:-0.673189 11:-0.874354 12:-0.614893 13:-0.984925 14:-0.522388 15:-1 
  5504 1:-0.836108 2:0.333333 3:-0.355769 4:-0.328736 5:-0.877419 6:0.0397237 7:-0.527094 8:-0.957698 9:-0.807923 10:-0.630883 11:-0.858847 12:-0.652346 13:-0.984925 14:0.343284 15:-1 
  5504 1:-0.496799 2:0.542484 3:-0.149038 4:-0.0896552 5:-0.63871 6:-0.0639033 7:-0.172414 8:-0.957698 9:-0.831933 10:-0.733474 11:-0.869583 12:-0.610487 13:-0.98794 14:-0.641791 15:-1 
  5504 1:-0.836108 2:0.45098 3:-0.225962 4:-0.160153 5:-0.852903 6:0.00863558 7:-0.541872 8:-0.93947 9:-0.848739 10:-0.727129 11:-0.874751 12:-0.544393 13:-0.965829 14:-0.223881 15:-1 
  5504 1:-0.641485 2:0.542484 3:0.677885 4:-0.0191571 5:-0.376774 6:-0.126079 7:-0.389163 8:-0.957698 9:-0.858343 10:-0.49762 11:-0.881113 12:-0.467284 13:-0.896471 14:0.492537 15:-1 
  5504 1:-0.763124 2:0.0980392 3:-0.158654 4:-0.157088 5:-0.815484 6:-0.0915371 7:-0.527094 8:-0.957698 9:-0.882353 10:-0.72184 11:-0.860835 12:-0.555409 13:-0.98794 14:-0.373134 15:-1 
  5504 1:-0.728553 2:0.45098 3:-0.4375 4:-0.114176 5:-0.783226 6:-0.115717 7:-0.482759 8:-0.888402 9:-0.779112 10:-0.420412 11:-0.859642 12:-0.531174 13:-0.984925 14:0.223881 15:-1 
  5504 1:-0.613316 2:0.320261 3:-0.326923 4:-0.549425 5:-0.810323 6:0.516408 7:0.123153 8:-0.957003 9:-0.918367 10:-0.701745 11:-0.886282 12:-0.694206 13:-0.98794 14:-0.373134 15:-1 
  5504 1:-0.572343 2:0.503268 3:-0.466346 4:0.0727969 5:-0.646452 6:-0.274611 7:-0.428571 8:-0.957698 9:-0.841537 10:-0.64569 11:-0.850497 12:-0.484472 13:-0.896471 14:-0.61194 15:-1 
  5504 1:-0.108835 2:0.189542 3:0.725962 4:0.434483 5:-0.203871 6:-0.671848 7:-0.502463 8:-0.858067 9:-0.867947 10:0.380222 11:-0.479125 12:-0.352721 13:-0.929648 14:0.253731 15:1 
  5504 1:-0.636364 2:0.398693 3:0.408654 4:-0.42069 5:-0.793548 6:0.0639033 7:-0.246305 8:-0.946288 9:-0.89916 10:-0.510312 11:-0.808748 12:-0.531174 13:-0.98593 14:0.432836 15:1 
  5504 1:-0.608195 2:0.398693 3:0.206731 4:0.0574713 5:-0.672258 6:-0.115717 7:-0.344828 8:-0.989842 9:-0.807923 10:-0.749339 11:-0.90338 12:-0.46508 13:-0.914573 14:-0.164179 15:-1 
  5504 1:-0.766965 2:0.424837 3:0.230769 4:-0.377778 5:-0.849032 6:0.222798 7:-0.330049 8:-0.90677 9:-0.781513 10:-0.861449 11:-0.947117 12:-0.0222516 13:-0.366834 14:-0.671642 15:-1 
  5504 1:-0.741357 2:0.254902 3:-0.302885 4:0.0565517 5:-0.75871 6:-0.354059 7:-0.640394 8:-0.957698 9:-0.740696 10:-0.924907 11:-0.797217 12:-1 13:-0.896471 14:0.283582 15:-1 
  5504 1:-0.259923 2:0.320261 3:0.0721154 4:0.198774 5:-0.39871 6:-0.492228 7:-0.374384 8:-0.993043 9:-0.846339 10:-0.480698 11:-0.733598 12:-0.731659 13:-0.966834 14:0.343284 15:1 
  5504 1:-0.524968 2:0.24183 3:-0.375 4:-0.0844444 5:-0.654194 6:-0.143351 7:-0.270936 8:-0.948375 9:-0.647059 10:-0.586462 11:-0.84493 12:-0.462877 13:-0.945729 14:0.373134 15:-1 
  5504 1:-0.544174 2:0.333333 3:-0.350962 4:-0.04 5:-0.655484 6:-0.264249 7:-0.394089 8:-0.911222 9:-0.812725 10:-0.671074 11:-0.836978 12:-0.661159 13:-0.984925 14:0.671642 15:-1 
  5504 1:-0.458387 2:0.594771 3:-0.0528846 4:-0.0786207 5:-0.612903 6:-0.122625 7:-0.17734 8:-0.95589 9:-0.747899 10:-0.406663 11:-0.836978 12:-0.553206 13:-0.968844 14:0.58209 15:-1 
  5504 1:-0.318822 2:0.0718954 3:-0.0336538 4:0.338851 5:-0.394839 6:-0.647668 7:-0.586207 8:-0.95742 9:-0.647059 10:-0.702803 11:-0.860835 12:-0.661159 13:-0.943719 14:0.432836 15:-1 
  5504 1:-0.523688 2:0.163399 3:0.399038 4:0.386973 5:-0.535484 6:-0.740933 7:-0.778325 8:-0.983163 9:-0.7503 10:-0.755685 11:-0.729622 12:-0.522362 13:-0.958794 14:-0.104478 15:1 
  5504 1:-0.514725 2:0.346405 3:-0.822115 4:-0.125824 5:-0.658065 6:0.0639033 7:-0.0837438 8:-0.959786 9:-0.579832 10:-0.583289 11:-0.926044 12:-0.379158 13:-0.955779 14:0.462687 15:-1 
  5504 1:-0.846351 2:0.163399 3:-0.591346 4:0.254866 5:-0.79871 6:-0.561313 7:-0.832512 8:-0.945314 9:-0.858343 10:-0.643575 11:-0.918489 12:-0.524565 13:-0.963819 14:-0.223881 15:-1 
  5504 1:-0.699104 2:0.437908 3:0.0432692 4:-0.138084 5:-0.769032 6:-0.0466321 7:-0.403941 8:-0.968413 9:-0.858343 10:-0.692226 11:-0.949901 12:-0.533377 13:-0.976884 14:0.373134 15:-1 
  3681.9311376921992 1:-0.770807 2:0.267974 3:-0.605769 4:-0.672031 5:-0.901935 6:0.395509 7:-0.236453 8:-0.942809 9:-0.807923 10:-0.496563 11:-0.807952 12:-0.50033 13:-0.98995 14:0.432836 15:-1 
  5504 1:-0.619718 2:0.215686 3:-0.120192 4:0.0350958 5:-0.683871 6:-0.267703 7:-0.472906 8:-0.998052 9:-0.817527 10:-0.666843 11:-0.915308 12:-0.445252 13:-0.896471 14:0.402985 15:-1 
  5504 1:-0.37644 2:0.490196 3:0.548077 4:-0.0942529 5:-0.567742 6:-0.184801 7:-0.147783 8:-0.98859 9:-0.819928 10:-0.658382 11:-0.777336 12:-0.515752 13:-0.892462 14:0.791045 15:1 
  5504 1:-0.700384 2:0.398693 3:-0.408654 4:0.0602299 5:-0.731613 6:-0.250432 7:-0.536946 8:-0.911779 9:-0.721489 10:-0.501851 11:-0.709742 12:-0.482705 13:-0.842211 14:0.373134 15:1 
  5504 1:-0.728553 2:0.424837 3:-0.548077 4:-0.601533 5:-0.870968 6:0.478411 7:-0.1133 8:-0.957698 9:-0.855942 10:-0.491274 11:-0.809145 12:-0.747081 13:-0.98995 14:0.0746269 15:1 
  5504 1:-0.758003 2:0.503268 3:-0.543269 4:-0.296245 5:-0.830968 6:0.0189983 7:-0.438424 8:-0.957698 9:-0.587035 10:-0.575886 11:-0.789264 12:-0.619299 13:-0.986935 14:-0.164179 15:1 
  5504 1:-0.709347 2:-0.0326797 3:-0.509615 4:0.302375 5:-0.691613 6:-0.623489 7:-0.788177 8:-0.933765 9:-0.920768 10:-0.893178 11:-0.860835 12:-0.762503 13:-0.98995 14:0.552239 15:-1 
  5504 1:-0.763124 2:0.411765 3:0.346154 4:-0.172414 5:-0.812903 6:-0.0708117 7:-0.492611 8:-0.938078 9:-0.67587 10:-0.872025 11:-0.89662 12:-0.606081 13:-0.975879 14:0.402985 15:-1 
  5504 1:-0.683739 2:0.294118 3:-0.625 4:-0.0654406 5:-0.656774 6:-0.198618 7:-0.487685 8:-0.996382 9:-0.815126 10:-0.766261 11:-0.868787 12:-0.639128 13:-0.98995 14:0.0447761 15:-1 
  5504 1:-0.78233 2:0.0718954 3:-0.408654 4:-0.0982375 5:-0.811613 6:-0.170984 7:-0.576355 8:-0.957698 9:-0.805522 10:-0.649921 11:-0.817097 12:-0.676581 13:-0.937688 14:-0.492537 15:-1 
  5504 1:-0.551857 2:0.294118 3:0.105769 4:-0.0314176 5:-0.658065 6:-0.146805 7:-0.305419 8:-0.993321 9:-0.863145 10:-0.575886 11:-0.87674 12:-0.643534 13:-0.896471 14:0.343284 15:-1 
  5504 1:-0.733675 2:0.411765 3:0.302885 4:-0.123065 5:-0.787097 6:0.00863558 7:-0.408867 8:-0.991651 9:-0.726291 10:-0.248017 11:-0.737575 12:-0.573034 13:-0.867337 14:-0.104478 15:-1 
  5504 1:-0.775928 2:0.464052 3:-0.269231 4:-0.302989 5:-0.84129 6:0.0673575 7:-0.433498 8:-0.914423 9:-0.817527 10:-0.787414 11:-0.840954 12:-0.661159 13:-0.98995 14:-0.0746269 15:-1 
  5504 1:-0.736236 2:0.281046 3:-0.817308 4:-0.0954789 5:-0.783226 6:-0.19171 7:-0.536946 8:-0.991234 9:-0.82473 10:-0.601269 11:-0.894235 12:-0.672174 13:-0.896471 14:0.373134 15:-1 
  5504 1:0.888604 2:0.215686 3:0.543269 4:0.690115 5:0.750968 6:-0.88601 7:-0.502463 8:-0.910248 9:-0.527011 10:0.971444 11:-0.64334 12:-0.469487 13:-0.920603 14:-0.283582 15:1 
  5504 1:-0.477593 2:0.699346 3:-0.793269 4:-0.485977 5:-0.732903 6:0.0604491 7:-0.0394089 8:-0.998052 9:-0.810324 10:-0.523004 11:-0.829026 12:-0.636924 13:-0.98995 14:0.402985 15:1 
  5504 1:-0.321383 2:0.320261 3:0.471154 4:0.148506 5:-0.458065 6:-0.37133 7:-0.29064 8:-0.975649 9:-0.932773 10:-0.639344 11:-0.84493 12:-0.482705 13:-0.955779 14:0.552239 15:-1 
  1660.3693731578417 1:-0.743918 2:0.294118 3:0.254808 4:-0.284598 5:-0.821935 6:-0.0500864 7:-0.458128 8:-0.867112 9:-0.654262 10:-0.734532 11:-0.856859 12:-0.559815 13:-0.177889 14:0.313433 15:-1 
  5504 1:-0.619718 2:0.398693 3:-0.134615 4:-0.112337 5:-0.717419 6:-0.212435 7:-0.428571 8:-0.957698 9:-0.776711 10:-0.807509 11:-0.84334 12:-0.50694 13:-0.984925 14:-0.134328 15:-1 
  5504 1:-0.56338 2:0.254902 3:-0.370192 4:-0.12092 5:-0.686452 6:-0.112263 7:-0.29064 8:-0.998609 9:-0.906363 10:-0.660497 11:-0.805169 12:-0.751487 13:-0.896471 14:-1 15:-1 
  5504 1:-0.422535 2:0.751634 3:-0.548077 4:0.00536398 5:-0.566452 6:-0.298791 7:-0.305419 8:-0.971613 9:-0.740696 10:-0.597039 11:-0.745527 12:-0.603878 13:-0.896471 14:0.104478 15:1 
  5504 1:-0.702945 2:0.346405 3:0.100962 4:-0.150345 5:-0.774194 6:-0.19171 7:-0.502463 8:-0.973422 9:-0.865546 10:-0.713379 11:-0.840954 12:-0.581846 13:-0.98995 14:0.104478 15:-1 
  2352.0398022741365 1:-0.0665813 2:0.529412 3:-0.0913462 4:0.326284 5:-0.212903 6:-0.488774 7:-0.231527 8:-0.844291 9:-0.714286 10:0.43945 11:-0.0536779 12:-0.361533 13:-0.907538 14:-0.402985 15:1 
  5504 1:-0.620999 2:0.333333 3:0.307692 4:-0.00383142 5:-0.694194 6:-0.215889 7:-0.433498 8:-0.957698 9:-0.740696 10:-0.639344 11:-0.904573 12:-0.438643 13:-0.896471 14:0.343284 15:-1 
  5504 1:-0.564661 2:0.633987 3:-0.663462 4:-0.34682 5:-0.740645 6:0.0811744 7:-0.137931 8:-0.987616 9:-0.627851 10:-0.628768 11:-0.749503 12:-0.427627 13:-0.896471 14:0.462687 15:1 
  5504 1:-0.600512 2:0.51634 3:-0.701923 4:-0.789425 5:-0.858065 6:0.322971 7:2.22045e-16 8:-0.968274 9:-0.829532 10:-0.702803 11:-0.82505 12:-0.707425 13:-0.977889 14:-0.223881 15:1 
  5504 1:-0.37388 2:0.79085 3:-0.600962 4:-0.0669732 5:-0.557419 6:-0.260794 7:-0.221675 8:-0.990399 9:-0.668667 10:-0.671074 11:-0.821074 12:-0.484472 13:-0.98995 14:-0.104478 15:1 
  5504 1:-0.760563 2:0.267974 3:0.423077 4:0.208582 5:-0.745806 6:-0.378238 7:-0.674877 8:-0.970222 9:-0.793517 10:-0.575886 11:-0.884692 12:-0.350518 13:-0.714573 14:-0.0746269 15:-1 
  5504 1:-0.665813 2:0.398693 3:-0.394231 4:-0.11295 5:-0.744516 6:-0.0984456 7:-0.399015 8:-0.992208 9:-0.882353 10:-0.692226 11:-0.868787 12:-0.720643 13:-0.98995 14:0.0746269 15:-1 
  5504 1:-0.542894 2:0.111111 3:-0.0576923 4:-0.062069 5:-0.659355 6:-0.0328152 7:-0.20197 8:-0.983998 9:-0.887155 10:-0.649921 11:-0.8334 12:-0.54219 13:-0.974874 14:0.134328 15:-1 
  5504 1:-0.820743 2:0.51634 3:-0.278846 4:-0.101609 5:-0.834839 6:-0.260794 7:-0.660099 8:-0.970222 9:-0.810324 10:-0.575886 11:-0.805169 12:-0.581846 13:-0.980905 14:0.0149254 15:1 
  5504 1:-0.677337 2:0.267974 3:0.394231 4:-0.028046 5:-0.734194 6:-0.1019 7:-0.413793 8:-0.992903 9:-0.817527 10:-0.618191 11:-0.884692 12:-0.590659 13:-0.973869 14:-0.253731 15:-1 
  5504 1:-0.176697 2:0.738562 3:0.201923 4:0.129502 5:-0.366452 6:-0.37133 7:-0.167488 8:-0.917762 9:-0.77431 10:-0.427816 11:-0.757455 12:-0.513549 13:-0.899497 14:-0.432836 15:1 
  5504 1:-0.332907 2:0.437908 3:0.576923 4:0.0583908 5:-0.740645 6:-0.398964 7:-0.330049 8:-0.967996 9:-0.858343 10:-0.734532 11:-0.856859 12:-0.443049 13:-0.958794 14:0.223881 15:1 
  5504 1:-0.558259 2:0.281046 3:-0.326923 4:-0.618391 5:-0.80129 6:0.364421 7:0.0985222 8:-0.993738 9:-0.651861 10:-0.372819 11:-0.901789 12:-0.592862 13:-0.896471 14:-0.313433 15:-1 
  5504 1:-0.828425 2:1 3:-0.413462 4:-0.355096 5:-0.877419 6:0.284974 7:-0.394089 8:-0.987755 9:-0.80072 10:-0.745108 11:-0.785288 12:-0.634721 13:-0.98995 14:0.0746269 15:1 
  5504 1:-0.846351 2:0.464052 3:0.625 4:-0.439693 5:-0.899355 6:0.243523 7:-0.44335 8:-0.976762 9:-0.683073 10:-0.745108 11:-0.840954 12:-0.460674 13:-0.923618 14:0.58209 15:1 
  5504 1:-0.601793 2:0.24183 3:-0.701923 4:-0.11908 5:-0.708387 6:-0.015544 7:-0.261084 8:-0.99666 9:-0.848739 10:-0.660497 11:-0.797217 12:-0.502534 13:-0.896471 14:-0.104478 15:-1 
  5504 1:-0.330346 2:0.398693 3:-0.384615 4:0.34682 5:-0.40129 6:-0.571675 7:-0.512315 8:-0.953941 9:-0.870348 10:-0.544157 11:-0.840954 12:-0.731659 13:-0.98995 14:0.343284 15:-1 
  -13312 1:-0.709347 2:0.215686 3:-0.774038 4:-0.693487 5:-0.88 6:0.416235 7:-0.133005 8:-0.992625 9:-0.846339 10:-0.79799 11:-0.852883 12:-0.559815 13:-1 14:-0.253731 15:-1 
  -13312 1:-0.120359 2:0.411765 3:-0.274038 4:0.422222 5:-0.221935 6:-0.73057 7:-0.576355 8:-0.978458 9:-0.611044 10:-0.660497 11:-0.765408 12:-0.623706 13:-0.901748 14:-0.0746269 15:1 
  -3748.008357330848 1:-0.462228 2:0.424837 3:-0.533654 4:-0.595402 5:-0.754839 6:0.588946 7:0.458128 8:-0.978458 9:-0.831933 10:-0.628768 11:-0.916501 12:-0.599471 13:-0.901748 14:0.134328 15:-1 
  -9780.5884528931365 1:-0.363636 2:0.594771 3:0.168269 4:0.0145594 5:-0.531613 6:-0.195164 7:-0.133005 8:-0.963125 9:-0.85114 10:-0.607615 11:-0.725646 12:-0.650143 13:-0.901748 14:-0.492537 15:1 
  -13312 1:-0.37388 2:0.30719 3:-0.956731 4:0.342529 5:-0.434839 6:-0.519862 7:-0.477833 8:-0.983998 9:-0.726291 10:-0.649921 11:-0.781312 12:-0.696409 13:-1 14:-0.791045 15:1 
  -13012.888336512973 1:-0.927017 2:0.346405 3:-0.831731 4:0.100383 5:-0.88 6:-0.298791 7:-0.773399 8:-0.995269 9:-0.781513 10:-0.544157 11:-0.82505 12:-0.663362 13:-0.98995 14:0.283582 15:1 
  -13312 1:-0.568502 2:0.45098 3:-0.4375 4:-0.310345 5:-0.738065 6:0.298791 7:0.0147783 8:-0.978458 9:-0.776711 10:-0.480698 11:-0.860835 12:-0.614893 13:-0.901748 14:0.253731 15:-1 
  -11476.324533894292 1:-0.619718 2:0.30719 3:-0.855769 4:0.557088 5:-0.570323 6:-0.661485 7:-0.773399 8:-0.978458 9:-0.908764 10:-0.872025 11:-0.89662 12:-0.434237 13:-0.901748 14:-0.552239 15:-1 
  -13312 1:-0.734955 2:0.738562 3:-0.0769231 4:-0.613793 5:-0.88 6:0.37133 7:-0.182266 8:-0.990816 9:-0.793517 10:-0.671074 11:-0.769384 12:-0.621503 13:-0.98392 14:0.373134 15:1 
  -13312 1:-0.760563 2:0.111111 3:0.596154 4:-0.0773946 5:-0.789677 6:-0.00518135 7:-0.428571 8:-0.978458 9:-0.85114 10:-0.639344 11:-0.904573 12:-0.603878 13:-0.901748 14:-0.791045 15:-1 
  -13312 1:-0.453265 2:0.254902 3:0.100962 4:0.25364 5:-0.51871 6:-0.595855 7:-0.625616 8:-0.993599 9:-0.656663 10:-0.734532 11:-0.944334 12:-0.535581 13:-0.966834 14:-0.0149254 15:-1 
  -13312 1:-0.645327 2:0.411765 3:-0.269231 4:-0.175479 5:-0.750968 6:-0.129534 7:-0.37931 8:-0.995686 9:-0.817527 10:-0.723956 11:-0.912525 12:-0.553206 13:-0.98593 14:0.343284 15:-1 
  -13312 1:-0.533931 2:-0.0326797 3:0.115385 4:-0.0375479 5:-0.647742 6:-0.164076 7:-0.300493 8:-0.978458 9:-1 10:1 11:1 12:-0.447455 13:-0.901748 14:0.19403 15:1 
  -13312 1:-0.609475 2:0.503268 3:-0.0288462 4:-0.322605 5:-0.757419 6:-0.0362694 7:-0.285714 8:-0.970639 9:-0.879952 10:-0.68165 11:-0.952286 12:-0.667768 13:-0.901748 14:-0.820896 15:-1 
  -13312 1:-0.927017 2:0.163399 3:-0.278846 4:-0.32567 5:-0.91871 6:0.0500864 7:-0.625616 8:-0.98205 9:-0.930372 10:-0.554733 11:-0.916501 12:-0.606081 13:-0.919598 14:0.253731 15:-1 
  -13312 1:-0.862996 2:0.464052 3:0.0865385 4:-0.2 5:-0.88 6:-0.105354 7:-0.625616 8:-0.995269 9:-0.507803 10:-0.671074 11:-0.908549 12:-0.703018 13:-0.901748 14:-0.522388 15:-1 
  -5266.5929802874643 1:-0.235595 2:0.79085 3:-0.322115 4:-0.135632 5:-0.505806 6:-0.530225 7:-0.428571 8:-0.999583 9:-0.836735 10:-0.586462 11:-0.848907 12:-0.390174 13:-0.979899 14:-0.462687 15:1 
  -13312 1:-0.555698 2:0.45098 3:-0.466346 4:-0.0896552 5:-0.673548 6:-0.233161 7:-0.37931 8:-0.931817 9:-0.666267 10:-0.554733 11:-0.868787 12:-0.645737 13:-0.98593 14:0.462687 15:1 
  -110.85993505999167 1:-0.325224 2:0.490196 3:0.245192 4:-0.166284 5:-0.557419 6:0.0431779 7:0.162562 8:-0.976901 9:-0.841537 10:-0.618191 11:-0.801193 12:-0.564221 13:-0.901748 14:-0.791045 15:1 
  -10333.091396095011 1:-0.542894 2:0.51634 3:-0.389423 4:-0.500383 5:-0.763871 6:0.0535406 7:-0.133005 8:-0.979128 9:-0.889556 10:-0.544157 11:-0.956262 12:-0.632518 13:-0.955779 14:0.253731 15:-1 
  -13312 1:-0.53009 2:0.477124 3:-0.225962 4:0.189272 5:-0.583226 6:-0.284974 7:-0.37931 8:-0.954081 9:-0.642257 10:-0.607615 11:-0.932406 12:-0.381362 13:-0.959799 14:-0.19403 15:-1 
  -13312 1:-0.645327 2:0.424837 3:-0.221154 4:-0.273563 5:-0.763871 6:0.0777202 7:-0.231527 8:-0.971474 9:-0.819928 10:-0.850873 11:-0.916501 12:-0.575237 13:-0.901748 14:-0.731343 15:-1 
  -13312 1:-0.722151 2:0.189542 3:-0.0384615 4:-0.380843 5:-0.828387 6:0.153713 7:-0.330049 8:-0.989564 9:-0.911164 10:-0.649921 11:-0.884692 12:-0.467284 13:-0.901748 14:-0.761194 15:-1 
  -13312 1:-0.619718 2:0.764706 3:-1 4:0.0114943 5:-0.699355 6:-0.1019 7:-0.330049 8:-0.997913 9:-0.478992 10:-0.649921 11:-0.87674 12:-0.573034 13:-0.945729 14:0.641791 15:-1 
  -13312 1:-0.619718 2:0.477124 3:0.317308 4:-0.104981 5:-0.712258 6:-0.112263 7:-0.330049 8:-0.930982 9:-0.743097 10:-0.819143 11:-0.932406 12:-0.610487 13:-0.979899 14:-0.19403 15:-1 
  -13312 1:-0.542894 2:0.424837 3:-0.153846 4:-0.350192 5:-0.725161 6:0.136442 7:-0.0837438 8:-0.99179 9:-0.711885 10:-0.554733 11:-0.912525 12:-0.524565 13:-0.971859 14:0.313433 15:-1 
  -13312 1:-0.690141 2:0.163399 3:-0.942308 4:-0.00689655 5:-0.738065 6:-0.25734 7:-0.53202 8:-0.985946 9:-0.457383 10:-0.53358 11:-0.87674 12:-0.469487 13:-0.980905 14:0.671642 15:1 
  -13312 1:-0.338028 2:0.346405 3:0.225962 4:0.514176 5:-0.350968 6:-0.678756 7:-0.625616 8:-0.905656 9:-0.743097 10:-0.649921 11:-0.884692 12:-0.694206 13:-0.901748 14:0.283582 15:1 
  -13312 1:-0.222791 2:0.895425 3:0.134615 4:0.00536398 5:-0.44129 6:-0.246978 7:-0.0344828 8:-0.913449 9:-0.786315 10:-0.523004 11:-0.856859 12:-0.548799 13:-0.972864 14:-0.701493 15:1 
  -13312 1:-0.261204 2:0.45098 3:0.0769231 4:0.0329502 5:-0.454194 6:-0.160622 7:0.0147783 8:-0.893829 9:-0.839136 10:-0.618191 11:-0.872763 12:-0.528971 13:-0.979899 14:0.0447761 15:-1 
  -11324.174715814028 1:-0.683739 2:0.385621 3:-0.350962 4:-0.270498 5:-0.789677 6:0.0639033 7:-0.330049 8:-0.998748 9:-0.853541 10:-0.586462 11:-0.89662 12:-0.568627 13:-0.910553 14:0.641791 15:-1 
  -13312 1:-0.90653 2:0.542484 3:-0.0673077 4:-0.466667 5:-0.931613 6:0.246978 7:-0.53202 8:-0.994017 9:-0.783914 10:-0.628768 11:-0.793241 12:-0.588456 13:-0.901748 14:-0.373134 15:1 
  -11360.838220618649 1:-0.696543 2:0.411765 3:-0.144231 4:-0.123372 5:-0.763871 6:-0.115717 7:-0.428571 8:-0.978458 9:-0.915966 10:-0.68165 11:-0.964215 12:-0.658956 13:-0.901748 14:-0.522388 15:-1 
  -13312 1:-0.645327 2:0.372549 3:-0.427885 4:0.0697318 5:-0.686452 6:-0.177893 7:-0.428571 8:-0.899116 9:-0.896759 10:-0.671074 11:-0.904573 12:-0.522362 13:-0.901748 14:-0.0746269 15:-1 
  -13312 1:-0.708067 2:0.411765 3:-0.447115 4:0.0329502 5:-0.741935 6:-0.198618 7:-0.512315 8:-0.998887 9:-0.839136 10:-0.649921 11:-0.87674 12:-0.652346 13:-0.901748 14:-0.791045 15:-1 
  -13312 1:-0.670935 2:0.124183 3:-0.173077 4:0.0697318 5:-0.712258 6:-0.278066 7:-0.527094 8:-0.985807 9:-0.939976 10:-0.628768 11:-0.916501 12:-0.423221 13:-0.901748 14:-0.343284 15:-1 
  -13312 1:-0.524968 2:0.385621 3:-0.25 4:0.0727969 5:-0.615484 6:-0.495682 7:-0.571429 8:-0.934321 9:-0.911164 10:-0.671074 11:-0.884692 12:-0.50033 13:-0.978894 14:0.223881 15:1 
  -13312 1:-0.696543 2:0.215686 3:0.451923 4:0.180077 5:-0.699355 6:-0.350604 7:-0.576355 8:-0.96076 9:-0.915966 10:-0.723956 11:-0.916501 12:-0.57744 13:-0.969849 14:-0.641791 15:-1 
  -13312 1:-0.859155 2:0.333333 3:-0.461538 4:-0.350192 5:-0.892903 6:0.0500864 7:-0.551724 8:-0.990677 9:-0.803121 10:-0.607615 11:-0.928429 12:-0.592862 13:-0.927638 14:0.0149254 15:-1 
  -13312 1:-0.299616 2:0.30719 3:-0.423077 4:-0.0436782 5:-0.505806 6:-0.177893 7:-0.0344828 8:-0.899951 9:-0.815126 10:-0.624537 11:-0.880716 12:-0.599471 13:-0.975879 14:0.552239 15:-1 
  -13312 1:-0.773367 2:0.385621 3:0.427885 4:-0.399234 5:-0.854194 6:0.115717 7:-0.37931 8:-0.984972 9:-0.860744 10:-0.70386 11:-0.952286 12:-0.575237 13:-0.901748 14:-0.641791 15:-1 
  -13312 1:-0.3137 2:0.581699 3:-0.100962 4:0.0942529 5:-0.470968 6:-0.319516 7:-0.226601 8:-0.978458 9:-0.529412 10:-0.578001 11:-0.836978 12:-0.661159 13:-0.901748 14:-0.61194 15:-1 
  -13312 1:-0.862996 2:0.607843 3:-0.586538 4:-0.503448 5:-0.91871 6:0.250432 7:-0.477833 8:-0.981215 9:-0.85114 10:-0.534638 11:-0.789264 12:-0.630315 13:-0.992965 14:-0.552239 15:1 
  
  `



  static feature_scaling_string = 
  `
  1 2.23 17.850000000000001
  2 17 170
  3 71 487
  4 29.899999999999999 95.150000000000006
  5 0.87 16.370000000000001
  6 4.0999999999999996 62
  7 0.23999999999999999 4.2999999999999998
  8 0.10000000000000001 143.83000000000001
  9 2.2000000000000002 85.5
  10 0.68999999999999995 19.600000000000001
  11 27 530
  12 0.20000000000000001 908
  13 0.10000000000000001 20
  14 20 87
  15 0 1
  `;



}
