svm_type c_svc
kernel_type rbf
gamma 0.00048828125
nr_class 2
total_sv 193
rho -0.63572908927354299
label 1 -1
nr_sv 125 68
SV
0.33647825739288362 1:3.86 2:113 3:174 4:85.4 5:3.3 6:13 7:0.5 8:6.91 9:6.8 10:4.36 11:55.4 12:154 13:0.22 14:27 15:0 
4.3685727133406509 1:5.27 2:126 3:192 4:76 5:4.01 6:16.7 7:0.88 8:3.14 9:8.9 10:4.21 11:54.9 12:222 13:1.63 14:30 15:0 
2.4755160533125995 1:4.13 2:135 3:92 4:69.9 5:2.9 6:15.9 7:0.7 8:6.57 9:13.3 10:5.68 11:98.8 12:180 13:0.54 14:63 15:1 
6.873794250094142 1:8.27 2:146 3:258 4:61.2 5:5.06 6:28.4 7:2.35 8:3.14 9:16.9 10:3.82 11:68.5 12:178 13:0.22 14:29 15:1 
0.012184138105478805 1:5.17 2:92 3:134 4:72.1 5:3.73 6:20.9 7:1.08 8:3.14 9:8.9 10:2.93 11:44.6 12:190 13:0.32 14:37 15:0 
1.0954508020958087 1:5.54 2:152 3:206 4:55.5 5:3.08 6:34.5 7:1.91 8:21.8 9:11.1 10:4.64 11:80.5 12:288 13:1.1301143 14:36 15:1 
0.36264762630380437 1:3.97 2:150 3:91 4:73.3 5:2.91 6:23.7 7:0.94 8:72 9:10.7 10:0.69 11:121 12:649 13:0.7 14:32 15:1 
2.8727591032505821 1:9.9 2:134 3:211 4:77.6 5:2.15 6:17 7:1.68 8:6.64 9:23.3 10:2.8 11:52.3 12:135 13:1.1301143 14:32 15:0 
0.15451238937956557 1:4.3 2:142 3:106 4:54 5:2.3 6:30.6 7:1.3 8:34 9:9.5 10:4.92 11:108.4 12:160 13:0.28 14:32 15:1 
13.219837962993221 1:3.9 2:126 3:160 4:49.4 5:1.93 6:42.6 7:1.66 8:3.14 9:8.4 10:4.3 11:52.9 12:175 13:0.22 14:37 15:0 
0.34253592250620396 1:7.15 2:17 3:190 4:65.1 5:4.66 6:28.3 7:2.02 8:3.14 9:14.9 10:2.54 11:52.4 12:141 13:1.1301143 14:23 15:0 
6.5815074906247863 1:4.54 2:137 3:200 4:61.3 5:2.78 6:30.8 7:1.4 8:13.4 9:11.9 10:3.86 11:51.1 12:185 13:0.22 14:41 15:0 
0.13336668680107014 1:5.92 2:111 3:260 4:55 5:3.26 6:38.5 7:2.28 8:3.89 9:33.2 10:2.68 11:59.6 12:157 13:1.1301143 14:29 15:0 
3.2975606446760466 1:6.12 2:121 3:396 4:59.2 5:3.62 6:32 7:1.96 8:3.14 9:8.7 10:4.42 11:59.1 12:226 13:0.22 14:26 15:0 
1.7333798622593202 1:6.57 2:125 3:83 4:49.9 5:3.3 6:40.6 7:2.7 8:3.14 9:12.9 10:3.46 11:58.9 12:197 13:1.1301143 14:34 15:0 
5.2100991076647842 1:11.59 2:125 3:235 4:84.9 5:2.8 6:11.1 7:1.28 8:2.08 9:8.7 10:4.04 11:46.7 12:137 13:1.24 14:27 15:0 
7.7808919816908473 1:5.01 2:128 3:268 4:52.8 5:2.6 6:36.1 7:1.8 8:3.14 9:14.3 10:5.23 11:97.2 12:189 13:0.22 14:37 15:1 
0.22898896933001081 1:4.97 2:142 3:112 4:51.9 5:2.58 6:32.6 7:1.62 8:4.34 9:6.3 10:3.56 11:78.7 12:194 13:0.22 14:39 15:1 
5.5111625129472284 1:4.38 2:128 3:274 4:53 5:2.32 6:32.2 7:1.41 8:9.9 9:6.5 10:3.07 11:56 12:200 13:0.22 14:49 15:0 
0.40325061728482209 1:4.49 2:121 3:273 4:67.2 5:3 6:19.7 7:0.9 8:4.21 9:6.7 10:4.73 11:65.7 12:325 13:1.6 14:49 15:0 
1.0362708370201712 1:5.09 2:129 3:220 4:61.1 5:3.11 6:30.8 7:1.57 8:17.1 9:10.5 10:5.78 11:72.2 12:274 13:0.33 14:56 15:0 
11.534915817675753 1:3.86 2:130 3:279 4:51.1 5:1.97 6:29.5 7:1.14 8:3.14 9:14 10:4.41 11:63.3 12:141 13:0.22 14:27 15:0 
5.6995146941815769 1:4.92 2:129 3:177 4:68.7 5:3.4 6:20 7:1 8:3.14 9:19.3 10:4 11:67 12:149 13:0.22 14:24 15:0 
1.641017982283588 1:5.66 2:160 3:163 4:51.7 5:2.93 6:38.3 7:2.17 8:9.95 9:8.5 10:3.58 11:71.5 12:140 13:1.1301143 14:38 15:1 
7.3275726206870067 1:4.53 2:142 3:159 4:59.7 5:2.7 6:21.4 7:0.97 8:6.78 9:9.1 10:5.15 11:77.3 12:155 13:0.22 14:36 15:1 
17.231886313700262 1:7.44 2:119 3:247 4:57.5 5:4.3 6:29.2 7:2.2 8:3.14 9:15.6 10:3.63 11:39.8 12:192 13:1.1301143 14:32 15:0 
2.6530315863473777 1:4.85 2:150 3:184 4:56.3 5:2.73 6:36.9 7:1.79 8:3.14 9:12.5 10:3.59 11:99.5 12:175 13:1.1301143 14:28 15:1 
0.25844611661620592 1:8.61 2:126 3:233 4:70.3 5:4.54 6:22.5 7:1.93 8:64.7 9:8.2 10:4.71 11:56.5 12:323 13:0.94 14:33 15:0 
7.3497224922618436 1:2.82 2:119 3:234 4:45 5:1.27 6:43.6 7:1.23 8:3.31 9:7.3 10:2.79 11:58.5 12:207 13:0.22 14:51 15:0 
0.20170543211535133 1:3.24 2:93 3:329 4:49.4 5:1.6 6:35.8 7:1.16 8:5.51 9:6.6 10:2.86 11:67.2 12:234.19803 13:0.22 14:43 15:0 
0.34656866113407847 1:2.81 2:124 3:175 4:79.4 5:2.23 6:17.4 7:0.49 8:15.1 9:3.5 10:2.96 11:40.8 12:578 13:0.79 14:31 15:0 
5.983541296151504 1:5.31 2:152 3:245 4:58.51 5:3 6:30.9 7:1.64 8:0.75 9:21 10:3.96 11:75.3 12:132 13:0.2 14:34 15:1 
0.20948922033716888 1:6.12 2:149 3:315 4:80.7 5:4.94 6:14.4 7:0.88 8:72.8 9:15.2 10:2.44 11:77.8 12:521 13:0.87 14:40 15:1 
3.516044702174518 1:3.67 2:126 3:245 4:40.3 5:1.48 6:43.9 7:1.61 8:3.14 9:5.2 10:5.16 11:58.3 12:157 13:0.23 14:29 15:0 
10.45089955122692 1:5.21 2:114 3:206 4:63.5 5:3.3 6:26.5 7:1.4 8:3.14 9:4.9 10:5.56 11:62.5 12:167 13:0.22 14:32 15:0 
0.22022149570079164 1:4.1 2:120 3:368 4:70.1 5:2.87 6:22.9 7:0.94 8:78.3 9:11.9 10:8.31 11:66.2 12:261 13:2.33 14:47 15:1 
0.22926293923556762 1:2.58 2:117 3:123 4:59.7 5:3.4755072 6:32.2 7:0.83 8:18.6 9:6.8 10:3.93 11:86.1 12:175 13:0.91 14:36 15:0 
2.8181867241496548 1:4.84 2:122 3:203 4:52.1 5:2.5 6:36.1 7:1.7 8:3.14 9:11.7 10:3.78 11:58.6 12:175 13:0.25 14:36 15:0 
7.8858318123710296 1:3.51 2:119 3:205 4:51.8 5:1.82 6:34.2 7:1.2 8:3.14 9:10.2 10:4.18 11:62.5 12:158 13:0.25 14:65 15:0 
0.28102240318194011 1:2.95 2:106 3:200 4:38.8 5:1.1 6:48.8 7:1.4 8:8.07 9:11.7 10:2.53 11:57 12:242 13:0.44 14:31 15:0 
3.0385117130459873 1:2.89 2:112 3:110 4:54.4 5:1.57 6:39.4 7:1.14 8:6.39 9:8.5 10:3.1 11:56.9 12:220 13:0.41 14:30 15:0 
15.362928795932072 1:6.16 2:135 3:248 4:59.6 5:3.67 6:31.2 7:1.92 8:3.14 9:9.2 10:3.21 11:59.8 12:177 13:0.22 14:32 15:0 
0.735832685314464 1:3.74 2:120 3:130 4:37.2 5:1.39 6:52.1 7:1.95 8:3.46 9:8 10:5.84 11:88.2 12:115 13:0.22 14:35 15:1 
0.72725813304308595 1:4.87 2:133 3:247 4:62.7 5:3.05 6:28.6 7:1.39 8:13.57 9:6.6 10:3.95 11:56.4 12:141 13:0.22 14:30 15:0 
15.303622388708201 1:3.51 2:128 3:232 4:57.3 5:2.01 6:33.3 7:1.17 8:4.45 9:8.5 10:3.27 11:58.5 12:207 13:0.44 14:46 15:0 
2.2439666621778906 1:2.44 2:136 3:114 4:54.1 5:1.32 6:36.1 7:0.88 8:7.3 9:6.9 10:6.07 11:58.5 12:199 13:0.22 14:51 15:0 
0.34510101985685321 1:9.93 2:128 3:487 4:74.3 5:7.38 6:16.3 7:1.62 8:76.2 9:21.8 10:3.2 11:71.5 12:286 13:0.55 14:44 15:1 
0.093445225320572686 1:3.47 2:140 3:144 4:61.4 5:2.13 6:26.8 7:0.93 8:29.7 9:7.5 10:3.72 11:86.6 12:323 13:0.22 14:32 15:1 
4.1186685527674998 1:2.79 2:134 3:138 4:33.6 5:0.94 6:58.1 7:1.62 8:3.14 9:6.4 10:5.57 11:72.6 12:186 13:0.22 14:34 15:1 
5.6792324088934318 1:4.35 2:128 3:188 4:58.8 5:2.55 6:29.7 7:1.29 8:8.12 9:11.4 10:6.17 11:62.3 12:213 13:0.25 14:61 15:0 
0.32072431127327683 1:6.36 2:122 3:230 4:69 5:4.39 6:21.2 7:1.35 8:136 9:10.7 10:4.04 11:49.3 12:234.19803 13:0.83 14:25 15:0 
0.99610250930836397 1:5.25 2:118 3:211 4:44.6 5:2.34 6:48 7:2.52 8:3.19 9:5.6 10:3.51 11:55.6 12:139 13:0.22 14:41 15:0 
0.31181234877407749 1:8.2 2:128 3:130 4:94.1 5:7.71 6:5.2 7:0.43 8:96.8 9:12.8 10:4.55 11:69.5 12:285 13:0.68 14:31 15:1 
0.25107674935092311 1:5.25 2:138 3:272 4:79.7 5:4.19 6:13.9 7:0.73 8:66.4 9:9.6 10:6.63 11:81.8 12:546 13:1.7 14:65 15:1 
0.84002062984362436 1:2.43 2:121 3:92 4:51.5 5:1.3 6:41 7:1 8:27.9 9:6.4 10:3.25 11:58 12:230 13:0.22 14:65 15:0 
0.34803217988143725 1:9.19 2:108 3:430 4:76.7 5:7.04 6:13.6 7:1.25 8:10.3 9:7.7 10:13.74 11:158 12:294 13:0.8 14:62 15:1 
0.36400680873344216 1:10.24 2:144 3:133 4:90.4 5:9.25 6:6.3 7:0.65 8:104 9:13.2 10:7.62 11:103.6 12:743 13:0.6 14:55 15:1 
0.35034386012417179 1:4.15 2:104 3:226 4:72.6 5:3.01 6:18.3 7:0.76 8:14.9 9:6 10:1.59 11:56.8 12:417 13:0.51 14:26 15:0 
4.8535878234783434 1:5.29 2:124 3:322 4:64.4 5:3.41 6:29.7 7:1.57 8:0.83 9:10.2 10:3.06 11:51.3 12:243 13:0.95 14:48 15:0 
0.30587429729807025 1:4.03 2:132 3:153 4:42.5 5:1.71 6:45.2 7:1.82 8:75.7 9:16.9 10:4.36 11:79.4 12:371 13:0.28 14:35 15:1 
0.23526377577319094 1:4.22 2:121 3:353 4:52.6 5:2.22 6:34.1 7:1.44 8:19.1 9:8.6 10:3.19 11:52.6 12:332 13:0.22 14:46 15:0 
0.27775111902046407 1:3.86 2:112 3:281 4:70.3 5:2.72 6:22.4 7:0.86 8:103 9:6.3 10:2.29 11:63 12:510 13:1.1301143 14:52 15:0 
0.33327179140655949 1:3.67 2:103 3:156 4:44.5 5:1.63 6:43.3 7:1.59 8:3.14 9:12.2 10:9.77 11:215.3 12:172 13:1.1301143 14:61 15:0 
0.3639426118020837 1:6.97 2:137 3:264 4:91.6 5:6.38 6:6.6 7:0.46 8:59.8 9:25.6 10:5.16 11:81.3 12:908 13:0.92 14:44 15:1 
0.36130312139033027 1:4.05 2:126 3:327 4:50.2 5:2.04 6:39.5 7:1.6 8:6.8 9:11.3 10:2 11:40.3 12:444 13:6.4 14:31 15:0 
0.27092666609918159 1:7.24 2:122 3:364 4:73.3 5:5.31 6:14.1 7:1.02 8:121 9:9.9 10:1.87 11:67.9 12:245 13:1.9 14:54 15:1 
0.032224178993657926 1:8.6 2:151 3:437 4:72.5 5:6.2 6:15.6 7:1.3 8:13 9:15.2 10:3.66 11:79.9 12:239 13:0.41 14:34 15:1 
0.35954130042573124 1:9.98 2:122 3:142 4:93.2 5:9.3 6:4.9 7:0.49 8:127.36 9:22.8 10:14.66 11:171.3 12:215 13:7.73 14:69 15:0 
0.36316689136224228 1:4.25 2:113 3:216 4:64.37 5:2.74 6:22.8 7:0.97 8:3.14 9:13 10:1.4 11:78 12:0.2 13:1.1301143 14:63 15:0 
0.029567723471787894 1:7.61 2:132 3:255 4:75.22 5:5.72 6:20.9 7:1.59 8:84.5 9:19.7 10:4.4 11:75 12:298 13:1.28 14:54 15:1 
0.33134267313103977 1:5.63 2:131 3:422 4:75.99 5:4.28 6:4.3 7:0.24 8:60.62 9:17.1 10:9.7 11:92 12:327 13:1.09 14:66 15:1 
1.2979059522664791 1:8.01 2:118 3:294 4:69.01 5:5.53 6:18.8 7:1.51 8:0.6 9:8.6 10:5.6 11:94 12:122 13:0.43 14:65 15:1 
1.3739125667706189 1:5.94 2:112 3:201 4:59.77 5:3.55 6:28.9 7:1.72 8:3.81 9:16.9 10:4.6 11:66 12:244 13:0.64 14:66 15:0 
15.383021256911094 1:5.79 2:119 3:206 4:61.22 5:3.54 6:25.4 7:1.47 8:6.48 9:10 10:3.8 11:68 12:154 13:0.25 14:76 15:0 
0.2950060230097476 1:13.21 2:142 3:115 4:95.15 5:12.57 6:4.1 7:0.54 8:53.63 9:29.2 10:7.36 11:42.7 12:525 13:20 14:62 15:0 
6.1121123398314783 1:6.46 2:139 3:268 4:59.96 5:3.87 6:29.5 7:1.91 8:3.27 9:12.7 10:6.3 11:68 12:203 13:0.41 14:73 15:0 
3.8927690543385109 1:7.55 2:99 3:272 4:73.58 5:5.56 6:14.3 7:1.08 8:3.16 9:16.9 10:3.5 11:62 12:154 13:0.66 14:68 15:0 
0.32586845949658794 1:3.26 2:121 3:135 4:83.4 5:2.73 6:10.5 7:0.34 8:65.08 9:19.3 10:7.85 11:62.9 12:583 13:1.1301143 14:67 15:0 
0.43720534680982165 1:6.02 2:120 3:108 4:58.42 5:3.52 6:34.9 7:2.1 8:2.99 9:19.7 10:4.63 11:45.6 12:282 13:0.54 14:69 15:0 
2.7379741981019481 1:3.43 2:106 3:156 4:70.84 5:2.43 6:16.8 7:0.58 8:4.03 9:8.1 10:4.06 11:47.5 12:216 13:0.46 14:46 15:0 
7.143953300258012 1:4.58 2:127 3:288 4:58.02 5:2.66 6:31.7 7:1.45 8:2.37 9:8.1 10:3.6 11:39.6 12:212 13:0.33 14:66 15:0 
0.33665946712550154 1:5.14 2:92 3:131 4:54.91 5:2.82 6:30.3 7:1.56 8:19.72 9:11 10:9.4 11:159.2 12:191 13:0.4 14:65 15:0 
0.19453244601441289 1:4.02 2:114 3:153 4:40.6 5:1.63 6:44.5 7:1.79 8:4.21 9:10.2 10:5.45 11:75.3 12:227 13:0.2 14:68 15:0 
5.4655092031166781 1:5.2 2:110 3:254 4:63.67 5:3.32 6:25.3 7:1.31 8:0.24 9:9.8 10:3.84 11:48.3 12:252 13:1.1301143 14:67 15:0 
3.0610722180338126 1:4.08 2:135 3:155 4:49.8 5:2.03 6:39.2 7:1.6 8:12 9:8 10:3.66 11:74.3 12:171 13:0.29 14:62 15:1 
0.29888285240444884 1:10.06 2:100 3:187 4:81.17 5:8.17 6:12.1 7:1.22 8:108 9:12.4 10:3.18 11:45.9 12:208 13:1.03 14:41 15:0 
0.30123403755042549 1:8.11 2:108 3:310 4:73.36 5:5.95 6:21.2 7:1.72 8:60.46 9:6.7 10:4.74 11:77.4 12:168 13:1.1301143 14:66 15:1 
0.19993798973258459 1:6.56 2:130 3:289 4:72.74 5:4.77 6:15.5 7:1.02 8:78.7 9:7.8 10:3.78 11:74 12:267 13:3.04 14:67 15:1 
0.32999844656667776 1:10.06 2:91 3:389 4:75.35 5:7.58 6:12.8 7:1.29 8:91.4 9:11 10:6.42 11:127 12:277 13:2.11 14:73 15:0 
0.27130595201196606 1:7.7 2:136 3:208 4:82.88 5:6.38 6:7.5 7:0.58 8:99.4 9:16.8 10:3 11:70 12:318 13:8.78 14:84 15:1 
0.13190415902238012 1:5.1 2:123 3:272 4:69.69 5:3.55 6:19 7:0.97 8:61.3 9:13.1 10:3.7 11:95 12:303 13:0.25 14:71 15:1 
0.26817132783609493 1:11.64 2:99 3:439 4:69.61 5:8.1 6:16.9 7:1.96 8:48.6 9:10 10:3.5 11:71 12:237 13:1.51 14:68 15:1 
0.2099993508741417 1:8.6 2:143 3:308 4:77.33 5:6.65 6:12.8 7:1.1 8:87.7 9:31.7 10:4.6 11:68 12:285 13:0.46 14:60 15:1 
6.5808831693999634 1:4.12 2:132 3:166 4:52.86 5:2.18 6:33.6 7:1.38 8:3.14 9:19.4 10:4.7 11:80 12:173 13:0.23 14:48 15:1 
0.27077989203220726 1:3.5 2:152 3:95 4:59.05 5:2.07 6:23.7 7:0.83 8:41.2 9:12.2 10:7.4 11:146 12:271 13:0.52 14:49 15:1 
0.19452086005975397 1:4.5 2:91 3:173 4:72.39 5:3.26 6:15 7:0.67 8:4.86 9:5.5 10:1.7 11:62 12:108 13:0.2 14:72 15:0 
6.8452195714140895 1:4.7 2:116 3:149 4:60.39 5:3.53 6:27.3 7:1.28 8:0.36 9:9.9 10:2.9 11:60 12:164 13:0.2 14:55 15:0 
1.8585139839597911 1:3.29 2:127 3:187 4:70.11 5:2.31 6:18.7 7:0.62 8:25.1 9:14.3 10:3.7 11:59 12:255 13:1 14:70 15:0 
2.0549302669068532 1:3.85 2:123 3:270 4:68.75 5:2.65 6:15.8 7:0.61 8:22 9:17.9 10:1.5 11:59 12:143 13:0.2 14:64 15:0 
7.3792655434674632 1:5.73 2:116 3:301 4:61.5 5:3.52 6:28.8 7:1.65 8:0.58 9:7.9 10:4.7 11:58 12:162 13:1.1301143 14:65 15:0 
0.34258638578876194 1:17.85 2:156 3:137 4:91.71 5:16.37 6:4.1 7:0.73 8:21.421373 9:85.5 10:5.6 11:79 12:511 13:20 14:67 15:1 
7.126216329856228 1:4.29 2:115 3:109 4:59.41 5:2.55 6:27.5 7:1.18 8:0.73 9:9.5 10:4.46 11:53.6 12:149 13:1.1301143 14:66 15:0 
0.330033847467463 1:6.48 2:111 3:215 4:88.42 5:5.73 6:5.1 7:0.33 8:143.83 9:51.5 10:3 11:79 12:297 13:11.68 14:67 15:1 
0.20419330920017742 1:16.98 2:110 3:392 4:85.04 5:14.44 6:7.4 7:1.25 8:6.55 9:21.9 10:19.33 11:116.7 12:241 13:0.89 14:44 15:1 
1.1467557688909173 1:6.31 2:147 3:114 4:46.67 5:2.94 6:34.8 7:2.19 8:0.24 9:10.1 10:5.2 11:70 12:165 13:0.2 14:67 15:1 
0.31502466193349155 1:7.52 2:117 3:164 4:86.48 5:6.5 6:7.5 7:0.57 8:53.3 9:33.7 10:4.92 11:53.9 12:488 13:20 14:64 15:1 
0.376317490912986 1:7.53 2:118 3:377 4:67.37 5:5.07 6:22.3 7:1.68 8:1.85 9:5 10:4.1 11:66 12:235 13:0.54 14:72 15:0 
2.972053851858111 1:3.46 2:125 3:105 4:72.55 5:2.51 6:19.1 7:0.66 8:10.49 9:10.1 10:4.33 11:62 12:276 13:1.1301143 14:36 15:0 
0.98345713285989778 1:4.23 2:116 3:332 4:53.24 5:2.25 6:31.6 7:1.34 8:9.65 9:16.6 10:3.2 11:63 12:200 13:8.28 14:64 15:0 
0.23658768195747751 1:9.4 2:123 3:121 4:75.26 5:7.07 6:18.2 7:1.71 8:70 9:17.3 10:8.6 11:133 12:261 13:0.75 14:53 15:1 
1.8253819746624209 1:5.64 2:113 3:202 4:58.58 5:3.3 6:29.8 7:1.68 8:0.2 9:6.1 10:3.9 11:76 12:113 13:1.1301143 14:20 15:0 
7.8897351979977763 1:4.55 2:120 3:300 4:57.62 5:2.62 6:27.5 7:1.25 8:2.01 9:7.8 10:3.4 11:67 12:190 13:0.2 14:57 15:0 
0.3641350810705925 1:9.52 2:134 3:260 4:73.17 5:6.97 6:18.9 7:1.8 8:11.29 9:14.1 10:14.3 11:265 12:290 13:1.02 14:40 15:1 
0.23704619141970432 1:3.25 2:135 3:141 4:75.25 5:2.45 6:15.9 7:0.52 8:34.73 9:11.1 10:5.03 11:55.4 12:258 13:0.41 14:65 15:0 
0.29122530637528316 1:8.35 2:140 3:183 4:75.76 5:6.33 6:15.3 7:1.27 8:64.7 9:13.7 10:5.2 11:67 12:413 13:4.61 14:63 15:1 
0.3775254221640485 1:4.1 2:114 3:367 4:69.33 5:2.84 6:22.1 7:0.9 8:2.24 9:10.8 10:4.7 11:56 12:295 13:2.94 14:51 15:0 
6.3310381575174004 1:4.84 2:124 3:197 4:58.84 5:2.85 6:30.2 7:1.46 8:0.66 9:7.1 10:3.6 11:60 12:127 13:0.2 14:56 15:0 
0.2559752773395369 1:4.77 2:118 3:175 4:64.1 5:3.06 6:27.4 7:1.31 8:51.9 9:14.8 10:2.9 11:57 12:361 13:1.05 14:77 15:0 
9.2588939798540277 1:4.75 2:114 3:361 4:61.61 5:2.93 6:30.1 7:1.43 8:0.61 9:9.8 10:4.3 11:56 12:186 13:0.36 14:45 15:0 
0.23094927262077861 1:5.84 2:129 3:313 4:74.4 5:4.35 6:19.7 7:1.15 8:50.7 9:8.8 10:4.26 11:49.8 12:518 13:0.2 14:66 15:1 
3.0399352972488014 1:8.66 2:150 3:321 4:66.75 5:5.78 6:22.3 7:1.93 8:6.01 9:11.6 10:6.1 11:88 12:221 13:1.1 14:39 15:1 
5.8042737618011806 1:5.68 2:115 3:211 4:42.35 5:2.41 6:43.6 7:2.47 8:0.55 9:16.7 10:6.62 11:51.7 12:185 13:1.1301143 14:43 15:0 
1.0492661370372298 1:3.57 2:170 3:193 4:50.94 5:1.82 6:41.3 7:1.47 8:0.98 9:10.5 10:3.1 11:81 12:166 13:0.2 14:56 15:1 
0.60680535606110908 1:5.34 2:112 3:133 4:58.64 5:3.13 6:32.6 7:1.74 8:0.34 9:8.5 10:3.9 11:78 12:226 13:1.1301143 14:50 15:0 
2.4904044203246714 1:7.46 2:124 3:199 4:73.84 5:5.51 6:16.5 7:1.23 8:3.41 9:7.6 10:5 11:67 12:122 13:0.2 14:65 15:0 
-8.4707433754919972 1:4.5 2:110 3:118 4:39.9 5:1.8 6:45.1 7:2 8:0.63 9:8.6 10:2.6 11:64 12:200 13:0.1 14:45 15:0 
-4.7928557801860583 1:4.2 2:141 3:144 4:68.3 5:2.9 6:18.6 7:0.8 8:1.6481429 9:5.6 10:2.3 11:54 12:182 13:1.0776087 14:31 15:0 
-3.5326192942151522 1:7.9 2:125 3:168 4:58.5 5:4.6 6:32.6 7:2.6 8:0.57 9:3.6 10:8.6 11:78 12:149 13:0.1 14:46 15:1 
-3.8764005724783752 1:9.1 2:125 3:222 4:76.3 5:6.9 6:11.9 7:1.1 8:1.6481429 9:18.4 10:3.9 11:86 12:171 13:1.0776087 14:51 15:1 
-2.8644212252184578 1:6.43 2:126 3:168 4:43.1 5:2.77 6:50.1 7:3.2 8:1.6481429 9:9.2 10:4.2 11:48 12:182 13:1.0776087 14:58 15:0 
-1.2654238401178475 1:5.1 2:126 3:339 4:67.1 5:3.4 6:22.1 7:1.1 8:1.07 9:3.6 10:2.6 11:66 12:113 13:1.0776087 14:32 15:0 
-9.8493909537286513 1:8.5 2:116 3:297 4:71.4 5:6.1 6:19.3 7:1.6 8:1.6481429 9:12.7 10:5.5 11:65 12:162 13:0.9 14:79 15:0 
-3.9978411166317835 1:6.3 2:107 3:243 4:74.9 5:4.7 6:17.3 7:1.1 8:1.6481429 9:7 10:4 11:57 12:128 13:1.0776087 14:37 15:0 
-4.5486329157228509 1:5.9 2:117 3:172 4:63.4 5:3.8 6:29.8 7:1.8 8:0.25 9:14.3 10:4.3 11:82 12:149 13:1.0776087 14:60 15:0 
-1.7596820636891439 1:4.5 2:103 3:170 4:55.1 5:2.5 6:31.2 7:1.4 8:0.57 9:4.6 10:7.1 11:88 12:130 13:2.3 14:87 15:0 
-0.7502774127358236 1:7.12 2:117 3:80 4:73.7 5:5.25 6:18 7:1.3 8:1.25 9:13.6 10:4 11:82 12:138 13:0.1 14:27 15:1 
-7.6415849832165303 1:2.8 2:120 3:106 4:65.8 5:1.8 6:24.4 7:0.7 8:0.44 9:11.3 10:5 11:71 12:153 13:0.2 14:63 15:1 
-10.778796608732696 1:5.6 2:128 3:188 4:52.4 5:2.9 6:41.7 7:2.3 8:1.6481429 9:11.5 10:5.6 11:62 12:175 13:1.0776087 14:62 15:0 
-4.3565221588799963 1:5.2 2:117 3:101 4:80.7 5:4.2 6:13.9 7:0.7 8:1.6481429 9:6 10:1.9 11:53 12:257 13:1.0776087 14:35 15:0 
-4.6229040905136767 1:8.8 2:139 3:235 4:43.3 5:3.8 6:49 7:4.3 8:0.35 9:6.8 10:4.5 11:67 12:111 13:0.64 14:25 15:0 
-2.7754930072934227 1:8.4 2:129 3:306 4:69.8 5:5.8 6:25.2 7:2.1 8:0.33 9:9.4 10:5.9 11:98 12:162 13:0.21 14:35 15:1 
-0.42642659689475443 1:4.9 2:94 3:144 4:67 5:3.3 6:25.6 7:1.2 8:0.86 9:5.3 10:7.2 11:113 12:152 13:0.56 14:87 15:1 
-2.8840338091743813 1:6.7 2:100 3:136 4:80.6 5:5.4 6:14.6 7:1 8:0.2 9:12.1 10:5.8 11:45 12:153 13:1.0776087 14:68 15:0 
-0.29112927344532585 1:4.3 2:150 3:263 4:42.5 5:1.8 6:43.8 7:1.9 8:0.76 9:10.8 10:3.8 11:85 12:172 13:0.26 14:66 15:1 
-0.37033999057518358 1:4.1 2:102 3:403 4:60 5:2.5 6:32.9 7:1.4 8:1.6481429 9:8.4 10:4.1 11:51 12:180 13:1.0776087 14:27 15:0 
-1.7281834390259483 1:6.2 2:119 3:401 4:45.9 5:2.8 6:38.7 7:2.4 8:1.29 9:4.1 10:3.6 11:52 12:161 13:2.08 14:41 15:0 
-2.2244450485467544 1:6.4 2:102 3:325 4:74.4 5:4.7 6:20.9 7:1.3 8:1.6481429 9:5.5 10:6 11:67 12:208 13:1.0776087 14:82 15:0 
-2.2134682668069812 1:6.5 2:113 3:300 4:70.8 5:4.6 6:15.8 7:1 8:0.56 9:16.5 10:3.2 11:41 12:211 13:0.43 14:53 15:0 
-0.43435428898171369 1:6.51 2:126.4 3:357 4:71.3 5:4.65 6:22.9 7:1.49 8:0.1 9:13.5 10:3.4 11:44 12:143 13:1.0776087 14:39 15:0 
-5.6428843197321807 1:6.4 2:127 3:288 4:53.9 5:3.4 6:34.8 7:2.2 8:1.82 9:6.7 10:7.2 11:50 12:154 13:0.36 14:31 15:0 
-1.6356152695449433 1:5.87 2:91 3:303 4:61.3 5:3.6 6:28.3 7:1.66 8:1.6481429 9:2.2 10:19.6 11:530 12:251 13:1.0776087 14:60 15:1 
-3.0418669888782826 1:6.7 2:138 3:139 4:70.6 5:4.7 6:19.6 7:1.3 8:4.55 9:9.2 10:4.2 11:48 12:162 13:1.0776087 14:63 15:1 
-4.0816828102733052 1:5.28 2:132 3:273 4:52 5:2.75 6:32 7:1.69 8:2.21 9:7.2 10:3.7 11:39 12:151 13:1.0776087 14:26 15:0 
-6.6686912637477267 1:2.8 2:106 3:221 4:51.9 5:1.5 6:34.5 7:1 8:1.39 9:5.1 10:4.9 11:48 12:179 13:0.9 14:62 15:0 
-9.4027914583992924 1:3.9 2:132 3:255 4:63.2 5:2.5 6:33.7 7:1.3 8:0.25 9:11 10:4.5 11:47 12:195 13:0.78 14:54 15:0 
-2.7437939757486434 1:3.3 2:129 3:297 4:56 5:1.8 6:30 7:1 8:0.44 9:22.7 10:3.8 11:50 12:135 13:1.0776087 14:36 15:0 
-7.0924032866036359 1:6.9 2:137 3:198 4:62.6 5:4.3 6:22.8 7:1.6 8:0.69 9:10.1 10:4.1 11:70 12:156 13:0.33 14:24 15:1 
-0.4985132822406656 1:6.1 2:132 3:211 4:48.4 5:3 6:40.5 7:2.5 8:0.43 9:3.2 10:5 11:54 12:221 13:1.0776087 14:83 15:0 
-2.1359355138712934 1:8.2 2:154 3:212 4:58.1 5:4.7 6:17.7 7:1.4 8:0.13 9:9 10:4.6 11:65 12:277 13:0.3 14:38 15:1 
-7.7820553424289765 1:5.7 2:128 3:182 4:59.6 5:3.4 6:26.3 7:1.5 8:5 9:16.1 10:4.9 11:60 12:161 13:0.24 14:69 15:1 
-2.1988777306513261 1:7.5 2:131 3:330 4:57.1 5:4.3 6:34.3 7:2.6 8:1.76 9:8.8 10:4.3 11:77 12:198 13:1.0776087 14:27 15:1 
-2.6422249681521088 1:6.3 2:132 3:168 4:84.3 5:5.3 6:8.1 7:0.5 8:1.6481429 9:11.9 10:7.4 11:59 12:269 13:3.12 14:68 15:1 
-1.0622021779708923 1:5.9 2:130 3:232 4:68.7 5:4.1 6:24.8 7:1.5 8:3.4 9:17.1 10:4.4 11:44 12:281 13:0.5 14:47 15:0 
-1.4607407102479857 1:5.5 2:126 3:117 4:67.8 5:3.7 6:21.6 7:1.2 8:0.29 9:10.2 10:4.8 11:54 12:198 13:1 14:77 15:1 
-32.255052417124787 1:5 2:126 3:233 4:53.6 5:2.7 6:35.3 7:1.8 8:2.15 9:9.7 10:2.1 11:48 12:193 13:1.0776087 14:29 15:0 
-1.8917188183169968 1:4.4 2:108 3:271 4:50.1 5:2.2 6:37.5 7:1.6 8:0.85 9:5.9 10:4 11:56 12:242 13:1.0776087 14:28 15:0 
-3.3756406059238682 1:5.96 2:126 3:357 4:63.3 5:3.77 6:28.4 7:1.69 8:0.77 9:11.7 10:4.1 11:51 12:213 13:7.24 14:45 15:0 
-1.9669415896981328 1:5.2 2:152 3:71 4:62.9 5:3.2 6:30.1 7:1.6 8:0.25 9:23.9 10:4 11:58 12:194 13:0.64 14:75 15:0 
-2.5781112144049603 1:5.2 2:130 3:345 4:59.1 5:3.1 6:29.8 7:1.6 8:5.06 9:12.9 10:2.4 11:44 12:177 13:0.3 14:47 15:0 
-4.2857707484989103 1:5.28 2:129 3:204 4:62.5 5:3.3 6:29.9 7:1.58 8:0.46 9:8.9 10:3.1 11:43 12:127 13:1.0776087 14:27 15:0 
-1.1432677859651181 1:10.1 2:119 3:409 4:66.8 5:6.7 6:26.3 7:2.7 8:3.22 9:10.5 10:2.4 11:36 12:201 13:1.0776087 14:34 15:0 
-8.8610868522941182 1:5.8 2:126 3:247 4:51.1 5:3 6:37 7:2.1 8:0.69 9:14.2 10:4.9 11:49 12:216 13:0.38 14:64 15:0 
-1.4738558660811818 1:4.65 2:106 3:83 4:62.3 5:2.9 6:25.6 7:1.19 8:1.11 9:24.8 10:5.1 11:58 12:241 13:0.29 14:76 15:1 
-1.4997657569952343 1:3.39 2:106 3:204 4:69.6 5:2.36 6:22.1 7:0.75 8:0.22 9:10.7 10:5.1 11:54 12:162 13:1.0776087 14:56 15:0 
-0.18963034342207438 1:7.4 2:120 3:326 4:79.3 5:5.9 6:13.4 7:1 8:6.88 9:12.9 10:4 11:56 12:139 13:1.0776087 14:63 15:1 
-0.21673543802583872 1:8.3 2:162 3:307 4:62.7 5:5.2 6:25.9 7:2.2 8:6.32 9:11.1 10:5.2 11:63 12:205 13:0.37 14:30 15:1 
-13.166884329138297 1:8 2:128 3:295 4:63.6 5:5.1 6:28.4 7:2.3 8:7.73 9:8.9 10:4.3 11:59 12:214 13:0.3 14:55 15:0 
-4.6108762240841408 1:5.1 2:123 3:230 4:64.8 5:3.3 6:30.3 7:1.5 8:0.82 9:8.3 10:3.4 11:53 12:169 13:1.0776087 14:44 15:0 
-2.893350512760946 1:10.9 2:125 3:313 4:57.6 5:6.2 6:26.8 7:2.9 8:0.46 9:9.7 10:4.5 11:45 12:189 13:1.0776087 14:53 15:0 
-1.2753971425831252 1:4.3 2:128 3:80 4:71.9 5:3.09 6:14.9 7:0.64 8:1.6481429 9:7.7 10:7.3 11:47 12:169 13:8.77 14:39 15:1 
-18.537078790810366 1:2.96 2:135 3:265 4:47.3 5:1.4 6:40.2 7:1.19 8:0.53 9:11.2 10:4.2 11:79 12:187 13:1.0776087 14:41 15:1 
-0.70833739407022345 1:4.6 2:125 3:249 4:58.5 5:2.7 6:29.7 7:1.4 8:1.6481429 9:5.7 10:3.7 11:36 12:155 13:1.0776087 14:36 15:0 
-11.067693403441924 1:5 2:122 3:190 4:64.8 5:3.3 6:27.9 7:1.4 8:7.35 9:6.5 10:3.8 11:51 12:217 13:1.0776087 14:51 15:0 
-10.175540885613328 1:4.51 2:125 3:186 4:63.6 5:2.87 6:27.3 7:1.23 8:0.18 9:8.9 10:4 11:58 12:158 13:1.0776087 14:27 15:0 
-16.546344540259589 1:8 2:120 3:214 4:65 5:5.2 6:24.4 7:2 8:0.56 9:8.4 10:4.9 11:66 12:143 13:1.0776087 14:67 15:1 
-2.8827045237056867 1:5.8 2:130 3:364 4:65 5:3.7 6:29 7:1.7 8:0.79 9:15 10:4.3 11:51 12:251 13:1.18 14:21 15:0 
-5.9529786487333034 1:6.3 2:123 3:167 4:51 5:3.2 6:38.8 7:2.5 8:0.41 9:6 10:2.6 11:39 12:187 13:1.0776087 14:33 15:0 
-2.8536164649544906 1:4.8 2:103 3:243 4:64.8 5:3.1 6:25 7:1.2 8:1.12 9:4.7 10:4.2 11:48 12:262 13:1.0776087 14:42 15:0 
-5.9211147772125257 1:5.94 2:123 3:227 4:64.9 5:3.85 6:18.7 7:1.11 8:4.82 9:5.9 10:3.8 11:56 12:227 13:0.31 14:61 15:1 
-4.8207526716208546 1:4.6 2:110 3:373 4:68.4 5:3.2 6:22.9 7:1.1 8:2.92 9:5.7 10:3.3 11:48 12:192 13:0.4 14:32 15:0 
-0.45360604138812194 1:4 2:123 3:368 4:49.5 5:2 6:36.4 7:1.5 8:1.18 9:8 10:3.49 11:39 12:193 13:1.0776087 14:32 15:0 
-16.217769779358711 1:7.59 2:138 3:258 4:65.6 5:4.97 6:23.8 7:1.81 8:1.6481429 9:21.8 10:4.68 11:68 12:154 13:1.0776087 14:33 15:0 
-16.389094498870246 1:3.3 2:140 3:157 4:46.1 5:1.5 6:40.3 7:1.3 8:1.45 9:8.4 10:5.09 11:80 12:168 13:0.17 14:35 15:1 
